digraph Tree {
node [shape=box, style="filled", color="black"] ;
0 [label="subSpamWords <= 0.5\ngini = 0.384\nsamples = 7462\nvalue = [5530, 1932]\nclass = Spam", fillcolor="#eead7e"] ;
1 [label="numEnd <= 0.5\ngini = 0.348\nsamples = 6959\nvalue = [5397, 1562]\nclass = Spam", fillcolor="#eda572"] ;
0 -> 1 [labeldistance=2.5, labelangle=45, headlabel="True"] ;
2 [label="subBlanks <= 24.166\ngini = 0.285\nsamples = 6167\nvalue = [5105, 1062]\nclass = Spam", fillcolor="#ea9b62"] ;
1 -> 2 ;
3 [label="multipartText <= 0.5\ngini = 0.261\nsamples = 6036\nvalue = [5104, 932]\nclass = Spam", fillcolor="#ea985d"] ;
2 -> 3 ;
4 [label="perHTML <= 3.926\ngini = 0.239\nsamples = 5847\nvalue = [5034, 813]\nclass = Spam", fillcolor="#e99559"] ;
3 -> 4 ;
5 [label="isYelling <= 0.5\ngini = 0.171\nsamples = 5499\nvalue = [4979, 520]\nclass = Spam", fillcolor="#e88e4e"] ;
4 -> 5 ;
6 [label="numDlr <= 0.5\ngini = 0.154\nsamples = 5427\nvalue = [4971, 456]\nclass = Spam", fillcolor="#e78d4b"] ;
5 -> 6 ;
7 [label="gini = 0.113\nsamples = 4781\nvalue = [4493, 288]\nclass = Spam", fillcolor="#e78946"] ;
6 -> 7 ;
8 [label="gini = 0.385\nsamples = 646\nvalue = [478, 168]\nclass = Spam", fillcolor="#eead7f"] ;
6 -> 8 ;
9 [label="hour <= 13.5\ngini = 0.198\nsamples = 72\nvalue = [8, 64]\nclass = NotSpam", fillcolor="#52a9e8"] ;
5 -> 9 ;
10 [label="gini = 0.0\nsamples = 34\nvalue = [0, 34]\nclass = NotSpam", fillcolor="#399de5"] ;
9 -> 10 ;
11 [label="gini = 0.332\nsamples = 38\nvalue = [8, 30]\nclass = NotSpam", fillcolor="#6eb7ec"] ;
9 -> 11 ;
12 [label="avgWordLen <= 4.423\ngini = 0.266\nsamples = 348\nvalue = [55, 293]\nclass = NotSpam", fillcolor="#5eafea"] ;
4 -> 12 ;
13 [label="avgWordLen <= 4.215\ngini = 0.054\nsamples = 217\nvalue = [6, 211]\nclass = NotSpam", fillcolor="#3fa0e6"] ;
12 -> 13 ;
14 [label="gini = 0.0\nsamples = 153\nvalue = [0, 153]\nclass = NotSpam", fillcolor="#399de5"] ;
13 -> 14 ;
15 [label="gini = 0.17\nsamples = 64\nvalue = [6, 58]\nclass = NotSpam", fillcolor="#4da7e8"] ;
13 -> 15 ;
16 [label="avgWordLen <= 4.573\ngini = 0.468\nsamples = 131\nvalue = [49, 82]\nclass = NotSpam", fillcolor="#afd8f5"] ;
12 -> 16 ;
17 [label="gini = 0.488\nsamples = 78\nvalue = [45, 33]\nclass = Spam", fillcolor="#f8ddca"] ;
16 -> 17 ;
18 [label="gini = 0.14\nsamples = 53\nvalue = [4, 49]\nclass = NotSpam", fillcolor="#49a5e7"] ;
16 -> 18 ;
19 [label="bodyCharCt <= 4682.5\ngini = 0.466\nsamples = 189\nvalue = [70, 119]\nclass = NotSpam", fillcolor="#add7f4"] ;
3 -> 19 ;
20 [label="isRe <= 0.5\ngini = 0.412\nsamples = 162\nvalue = [47, 115]\nclass = NotSpam", fillcolor="#8ac5f0"] ;
19 -> 20 ;
21 [label="avgWordLen <= 4.543\ngini = 0.352\nsamples = 149\nvalue = [34, 115]\nclass = NotSpam", fillcolor="#74baed"] ;
20 -> 21 ;
22 [label="gini = 0.492\nsamples = 32\nvalue = [14, 18]\nclass = NotSpam", fillcolor="#d3e9f9"] ;
21 -> 22 ;
23 [label="gini = 0.283\nsamples = 117\nvalue = [20, 97]\nclass = NotSpam", fillcolor="#62b1ea"] ;
21 -> 23 ;
24 [label="gini = 0.0\nsamples = 13\nvalue = [13, 0]\nclass = Spam", fillcolor="#e58139"] ;
20 -> 24 ;
25 [label="avgWordLen <= 4.68\ngini = 0.252\nsamples = 27\nvalue = [23, 4]\nclass = Spam", fillcolor="#ea975b"] ;
19 -> 25 ;
26 [label="bodyCharCt <= 6681.0\ngini = 0.5\nsamples = 8\nvalue = [4, 4]\nclass = Spam", fillcolor="#ffffff"] ;
25 -> 26 ;
27 [label="gini = 0.0\nsamples = 2\nvalue = [2, 0]\nclass = Spam", fillcolor="#e58139"] ;
26 -> 27 ;
28 [label="gini = 0.444\nsamples = 6\nvalue = [2, 4]\nclass = NotSpam", fillcolor="#9ccef2"] ;
26 -> 28 ;
29 [label="gini = 0.0\nsamples = 19\nvalue = [19, 0]\nclass = Spam", fillcolor="#e58139"] ;
25 -> 29 ;
30 [label="numDlr <= 2.5\ngini = 0.015\nsamples = 131\nvalue = [1, 130]\nclass = NotSpam", fillcolor="#3b9ee5"] ;
2 -> 30 ;
31 [label="gini = 0.0\nsamples = 107\nvalue = [0, 107]\nclass = NotSpam", fillcolor="#399de5"] ;
30 -> 31 ;
32 [label="hour <= 18.5\ngini = 0.08\nsamples = 24\nvalue = [1, 23]\nclass = NotSpam", fillcolor="#42a1e6"] ;
30 -> 32 ;
33 [label="gini = 0.0\nsamples = 18\nvalue = [0, 18]\nclass = NotSpam", fillcolor="#399de5"] ;
32 -> 33 ;
34 [label="hour <= 19.5\ngini = 0.278\nsamples = 6\nvalue = [1, 5]\nclass = NotSpam", fillcolor="#61b1ea"] ;
32 -> 34 ;
35 [label="gini = 0.444\nsamples = 3\nvalue = [1, 2]\nclass = NotSpam", fillcolor="#9ccef2"] ;
34 -> 35 ;
36 [label="gini = 0.0\nsamples = 3\nvalue = [0, 3]\nclass = NotSpam", fillcolor="#399de5"] ;
34 -> 36 ;
37 [label="subExcCt <= 0.5\ngini = 0.466\nsamples = 792\nvalue = [292, 500]\nclass = NotSpam", fillcolor="#add6f4"] ;
1 -> 37 ;
38 [label="isRe <= 0.5\ngini = 0.487\nsamples = 644\nvalue = [270, 374]\nclass = NotSpam", fillcolor="#c8e4f8"] ;
37 -> 38 ;
39 [label="numLines <= 242.5\ngini = 0.46\nsamples = 569\nvalue = [204, 365]\nclass = NotSpam", fillcolor="#a8d4f4"] ;
38 -> 39 ;
40 [label="multipartText <= 0.5\ngini = 0.32\nsamples = 435\nvalue = [87, 348]\nclass = NotSpam", fillcolor="#6ab6ec"] ;
39 -> 40 ;
41 [label="isWrote <= 0.5\ngini = 0.273\nsamples = 405\nvalue = [66, 339]\nclass = NotSpam", fillcolor="#60b0ea"] ;
40 -> 41 ;
42 [label="gini = 0.256\nsamples = 399\nvalue = [60, 339]\nclass = NotSpam", fillcolor="#5caeea"] ;
41 -> 42 ;
43 [label="gini = 0.0\nsamples = 6\nvalue = [6, 0]\nclass = Spam", fillcolor="#e58139"] ;
41 -> 43 ;
44 [label="avgWordLen <= 4.859\ngini = 0.42\nsamples = 30\nvalue = [21, 9]\nclass = Spam", fillcolor="#f0b78e"] ;
40 -> 44 ;
45 [label="gini = 0.32\nsamples = 10\nvalue = [2, 8]\nclass = NotSpam", fillcolor="#6ab6ec"] ;
44 -> 45 ;
46 [label="gini = 0.095\nsamples = 20\nvalue = [19, 1]\nclass = Spam", fillcolor="#e68843"] ;
44 -> 46 ;
47 [label="numDlr <= 13.5\ngini = 0.222\nsamples = 134\nvalue = [117, 17]\nclass = Spam", fillcolor="#e99356"] ;
39 -> 47 ;
48 [label="sortedRec <= 0.5\ngini = 0.11\nsamples = 120\nvalue = [113, 7]\nclass = Spam", fillcolor="#e78945"] ;
47 -> 48 ;
49 [label="gini = 0.0\nsamples = 2\nvalue = [0, 2]\nclass = NotSpam", fillcolor="#399de5"] ;
48 -> 49 ;
50 [label="gini = 0.081\nsamples = 118\nvalue = [113, 5]\nclass = Spam", fillcolor="#e68742"] ;
48 -> 50 ;
51 [label="subQuesCt <= 0.5\ngini = 0.408\nsamples = 14\nvalue = [4, 10]\nclass = NotSpam", fillcolor="#88c4ef"] ;
47 -> 51 ;
52 [label="gini = 0.198\nsamples = 9\nvalue = [1, 8]\nclass = NotSpam", fillcolor="#52a9e8"] ;
51 -> 52 ;
53 [label="gini = 0.48\nsamples = 5\nvalue = [3, 2]\nclass = Spam", fillcolor="#f6d5bd"] ;
51 -> 53 ;
54 [label="underscore <= 0.5\ngini = 0.211\nsamples = 75\nvalue = [66, 9]\nclass = Spam", fillcolor="#e99254"] ;
38 -> 54 ;
55 [label="perCaps <= 21.421\ngini = 0.173\nsamples = 73\nvalue = [66, 7]\nclass = Spam", fillcolor="#e88e4e"] ;
54 -> 55 ;
56 [label="numLines <= 12.0\ngini = 0.057\nsamples = 68\nvalue = [66, 2]\nclass = Spam", fillcolor="#e6853f"] ;
55 -> 56 ;
57 [label="gini = 0.5\nsamples = 2\nvalue = [1, 1]\nclass = Spam", fillcolor="#ffffff"] ;
56 -> 57 ;
58 [label="gini = 0.03\nsamples = 66\nvalue = [65, 1]\nclass = Spam", fillcolor="#e5833c"] ;
56 -> 58 ;
59 [label="gini = 0.0\nsamples = 5\nvalue = [0, 5]\nclass = NotSpam", fillcolor="#399de5"] ;
55 -> 59 ;
60 [label="gini = 0.0\nsamples = 2\nvalue = [0, 2]\nclass = NotSpam", fillcolor="#399de5"] ;
54 -> 60 ;
61 [label="perCaps <= 12.024\ngini = 0.253\nsamples = 148\nvalue = [22, 126]\nclass = NotSpam", fillcolor="#5caeea"] ;
37 -> 61 ;
62 [label="perHTML <= 71.981\ngini = 0.401\nsamples = 72\nvalue = [20, 52]\nclass = NotSpam", fillcolor="#85c3ef"] ;
61 -> 62 ;
63 [label="perCaps <= 8.729\ngini = 0.299\nsamples = 60\nvalue = [11, 49]\nclass = NotSpam", fillcolor="#65b3eb"] ;
62 -> 63 ;
64 [label="avgWordLen <= 4.26\ngini = 0.102\nsamples = 37\nvalue = [2, 35]\nclass = NotSpam", fillcolor="#44a3e6"] ;
63 -> 64 ;
65 [label="gini = 0.278\nsamples = 12\nvalue = [2, 10]\nclass = NotSpam", fillcolor="#61b1ea"] ;
64 -> 65 ;
66 [label="gini = 0.0\nsamples = 25\nvalue = [0, 25]\nclass = NotSpam", fillcolor="#399de5"] ;
64 -> 66 ;
67 [label="numLines <= 21.0\ngini = 0.476\nsamples = 23\nvalue = [9, 14]\nclass = NotSpam", fillcolor="#b8dcf6"] ;
63 -> 67 ;
68 [label="gini = 0.0\nsamples = 7\nvalue = [7, 0]\nclass = Spam", fillcolor="#e58139"] ;
67 -> 68 ;
69 [label="gini = 0.219\nsamples = 16\nvalue = [2, 14]\nclass = NotSpam", fillcolor="#55abe9"] ;
67 -> 69 ;
70 [label="numLines <= 133.5\ngini = 0.375\nsamples = 12\nvalue = [9, 3]\nclass = Spam", fillcolor="#eeab7b"] ;
62 -> 70 ;
71 [label="gini = 0.0\nsamples = 3\nvalue = [0, 3]\nclass = NotSpam", fillcolor="#399de5"] ;
70 -> 71 ;
72 [label="gini = 0.0\nsamples = 9\nvalue = [9, 0]\nclass = Spam", fillcolor="#e58139"] ;
70 -> 72 ;
73 [label="numLines <= 369.5\ngini = 0.051\nsamples = 76\nvalue = [2, 74]\nclass = NotSpam", fillcolor="#3ea0e6"] ;
61 -> 73 ;
74 [label="numLines <= 58.5\ngini = 0.027\nsamples = 74\nvalue = [1, 73]\nclass = NotSpam", fillcolor="#3c9ee5"] ;
73 -> 74 ;
75 [label="bodyCharCt <= 1923.0\ngini = 0.054\nsamples = 36\nvalue = [1, 35]\nclass = NotSpam", fillcolor="#3fa0e6"] ;
74 -> 75 ;
76 [label="gini = 0.0\nsamples = 28\nvalue = [0, 28]\nclass = NotSpam", fillcolor="#399de5"] ;
75 -> 76 ;
77 [label="gini = 0.219\nsamples = 8\nvalue = [1, 7]\nclass = NotSpam", fillcolor="#55abe9"] ;
75 -> 77 ;
78 [label="gini = 0.0\nsamples = 38\nvalue = [0, 38]\nclass = NotSpam", fillcolor="#399de5"] ;
74 -> 78 ;
79 [label="gini = 0.5\nsamples = 2\nvalue = [1, 1]\nclass = Spam", fillcolor="#ffffff"] ;
73 -> 79 ;
80 [label="forwards <= 7.655\ngini = 0.389\nsamples = 503\nvalue = [133, 370]\nclass = NotSpam", fillcolor="#80c0ee"] ;
0 -> 80 [labeldistance=2.5, labelangle=-45, headlabel="False"] ;
81 [label="perHTML <= 87.539\ngini = 0.247\nsamples = 430\nvalue = [62, 368]\nclass = NotSpam", fillcolor="#5aaee9"] ;
80 -> 81 ;
82 [label="numEnd <= 0.5\ngini = 0.233\nsamples = 424\nvalue = [57, 367]\nclass = NotSpam", fillcolor="#58ace9"] ;
81 -> 82 ;
83 [label="numRec <= 3.0\ngini = 0.282\nsamples = 300\nvalue = [51, 249]\nclass = NotSpam", fillcolor="#62b1ea"] ;
82 -> 83 ;
84 [label="subBlanks <= 17.275\ngini = 0.313\nsamples = 263\nvalue = [51, 212]\nclass = NotSpam", fillcolor="#69b5eb"] ;
83 -> 84 ;
85 [label="hour <= 5.5\ngini = 0.389\nsamples = 189\nvalue = [50, 139]\nclass = NotSpam", fillcolor="#80c0ee"] ;
84 -> 85 ;
86 [label="gini = 0.045\nsamples = 43\nvalue = [1, 42]\nclass = NotSpam", fillcolor="#3e9fe6"] ;
85 -> 86 ;
87 [label="gini = 0.446\nsamples = 146\nvalue = [49, 97]\nclass = NotSpam", fillcolor="#9dcff2"] ;
85 -> 87 ;
88 [label="isRe <= 0.5\ngini = 0.027\nsamples = 74\nvalue = [1, 73]\nclass = NotSpam", fillcolor="#3c9ee5"] ;
84 -> 88 ;
89 [label="gini = 0.028\nsamples = 70\nvalue = [1, 69]\nclass = NotSpam", fillcolor="#3c9ee5"] ;
88 -> 89 ;
90 [label="gini = 0.0\nsamples = 4\nvalue = [0, 4]\nclass = NotSpam", fillcolor="#399de5"] ;
88 -> 90 ;
91 [label="gini = 0.0\nsamples = 37\nvalue = [0, 37]\nclass = NotSpam", fillcolor="#399de5"] ;
83 -> 91 ;
92 [label="numRec <= 2.5\ngini = 0.092\nsamples = 124\nvalue = [6, 118]\nclass = NotSpam", fillcolor="#43a2e6"] ;
82 -> 92 ;
93 [label="forwards <= 0.22\ngini = 0.126\nsamples = 89\nvalue = [6, 83]\nclass = NotSpam", fillcolor="#47a4e7"] ;
92 -> 93 ;
94 [label="perCaps <= 15.303\ngini = 0.049\nsamples = 79\nvalue = [2, 77]\nclass = NotSpam", fillcolor="#3ea0e6"] ;
93 -> 94 ;
95 [label="gini = 0.085\nsamples = 45\nvalue = [2, 43]\nclass = NotSpam", fillcolor="#42a2e6"] ;
94 -> 95 ;
96 [label="gini = 0.0\nsamples = 34\nvalue = [0, 34]\nclass = NotSpam", fillcolor="#399de5"] ;
94 -> 96 ;
97 [label="subBlanks <= 13.961\ngini = 0.48\nsamples = 10\nvalue = [4, 6]\nclass = NotSpam", fillcolor="#bddef6"] ;
93 -> 97 ;
98 [label="gini = 0.0\nsamples = 4\nvalue = [0, 4]\nclass = NotSpam", fillcolor="#399de5"] ;
97 -> 98 ;
99 [label="gini = 0.444\nsamples = 6\nvalue = [4, 2]\nclass = Spam", fillcolor="#f2c09c"] ;
97 -> 99 ;
100 [label="gini = 0.0\nsamples = 35\nvalue = [0, 35]\nclass = NotSpam", fillcolor="#399de5"] ;
92 -> 100 ;
101 [label="bodyCharCt <= 18729.5\ngini = 0.278\nsamples = 6\nvalue = [5, 1]\nclass = Spam", fillcolor="#ea9a61"] ;
81 -> 101 ;
102 [label="gini = 0.5\nsamples = 2\nvalue = [1, 1]\nclass = Spam", fillcolor="#ffffff"] ;
101 -> 102 ;
103 [label="gini = 0.0\nsamples = 4\nvalue = [4, 0]\nclass = Spam", fillcolor="#e58139"] ;
101 -> 103 ;
104 [label="subBlanks <= 24.026\ngini = 0.053\nsamples = 73\nvalue = [71, 2]\nclass = Spam", fillcolor="#e6853f"] ;
80 -> 104 ;
105 [label="gini = 0.0\nsamples = 71\nvalue = [71, 0]\nclass = Spam", fillcolor="#e58139"] ;
104 -> 105 ;
106 [label="gini = 0.0\nsamples = 2\nvalue = [0, 2]\nclass = NotSpam", fillcolor="#399de5"] ;
104 -> 106 ;
}