digraph Tree {
node [shape=box, style="filled", color="black"] ;
0 [label="subSpamWords <= 0.5\ngini = 0.378\nsamples = 7462\nvalue = [5574, 1888]\nclass = Spam", fillcolor="#eeac7c"] ;
1 [label="subBlanks <= 24.166\ngini = 0.34\nsamples = 6936\nvalue = [5431, 1505]\nclass = Spam", fillcolor="#eca470"] ;
0 -> 1 [labeldistance=2.5, labelangle=45, headlabel="True"] ;
2 [label="numDlr <= 0.5\ngini = 0.311\nsamples = 6723\nvalue = [5430, 1293]\nclass = Spam", fillcolor="#eb9f68"] ;
1 -> 2 ;
3 [label="subExcCt <= 0.5\ngini = 0.246\nsamples = 5561\nvalue = [4764, 797]\nclass = Spam", fillcolor="#e9965a"] ;
2 -> 3 ;
4 [label="perHTML <= 3.926\ngini = 0.209\nsamples = 5257\nvalue = [4633, 624]\nclass = Spam", fillcolor="#e99254"] ;
3 -> 4 ;
5 [label="perCaps <= 23.823\ngini = 0.145\nsamples = 4976\nvalue = [4583, 393]\nclass = Spam", fillcolor="#e78c4a"] ;
4 -> 5 ;
6 [label="numRec <= 0.5\ngini = 0.113\nsamples = 4872\nvalue = [4578, 294]\nclass = Spam", fillcolor="#e78946"] ;
5 -> 6 ;
7 [label="gini = 0.332\nsamples = 19\nvalue = [4, 15]\nclass = NotSpam", fillcolor="#6eb7ec"] ;
6 -> 7 ;
8 [label="gini = 0.108\nsamples = 4853\nvalue = [4574, 279]\nclass = Spam", fillcolor="#e78945"] ;
6 -> 8 ;
9 [label="bodyCharCt <= 6447.5\ngini = 0.092\nsamples = 104\nvalue = [5, 99]\nclass = NotSpam", fillcolor="#43a2e6"] ;
5 -> 9 ;
10 [label="gini = 0.044\nsamples = 88\nvalue = [2, 86]\nclass = NotSpam", fillcolor="#3e9fe6"] ;
9 -> 10 ;
11 [label="gini = 0.305\nsamples = 16\nvalue = [3, 13]\nclass = NotSpam", fillcolor="#67b4eb"] ;
9 -> 11 ;
12 [label="numLines <= 242.5\ngini = 0.293\nsamples = 281\nvalue = [50, 231]\nclass = NotSpam", fillcolor="#64b2eb"] ;
4 -> 12 ;
13 [label="avgWordLen <= 4.01\ngini = 0.082\nsamples = 233\nvalue = [10, 223]\nclass = NotSpam", fillcolor="#42a1e6"] ;
12 -> 13 ;
14 [label="gini = 0.0\nsamples = 85\nvalue = [0, 85]\nclass = NotSpam", fillcolor="#399de5"] ;
13 -> 14 ;
15 [label="gini = 0.126\nsamples = 148\nvalue = [10, 138]\nclass = NotSpam", fillcolor="#47a4e7"] ;
13 -> 15 ;
16 [label="avgWordLen <= 4.503\ngini = 0.278\nsamples = 48\nvalue = [40, 8]\nclass = Spam", fillcolor="#ea9a61"] ;
12 -> 16 ;
17 [label="gini = 0.13\nsamples = 43\nvalue = [40, 3]\nclass = Spam", fillcolor="#e78a48"] ;
16 -> 17 ;
18 [label="gini = 0.0\nsamples = 5\nvalue = [0, 5]\nclass = NotSpam", fillcolor="#399de5"] ;
16 -> 18 ;
19 [label="bodyCharCt <= 1004.5\ngini = 0.49\nsamples = 304\nvalue = [131, 173]\nclass = NotSpam", fillcolor="#cfe7f9"] ;
3 -> 19 ;
20 [label="isInReplyTo <= 0.5\ngini = 0.441\nsamples = 134\nvalue = [90, 44]\nclass = Spam", fillcolor="#f2bf9a"] ;
19 -> 20 ;
21 [label="forwards <= 2.5\ngini = 0.489\nsamples = 103\nvalue = [59, 44]\nclass = Spam", fillcolor="#f8dfcd"] ;
20 -> 21 ;
22 [label="gini = 0.498\nsamples = 89\nvalue = [47, 42]\nclass = Spam", fillcolor="#fcf2ea"] ;
21 -> 22 ;
23 [label="gini = 0.245\nsamples = 14\nvalue = [12, 2]\nclass = Spam", fillcolor="#e9965a"] ;
21 -> 23 ;
24 [label="gini = 0.0\nsamples = 31\nvalue = [31, 0]\nclass = Spam", fillcolor="#e58139"] ;
20 -> 24 ;
25 [label="isRe <= 0.5\ngini = 0.366\nsamples = 170\nvalue = [41, 129]\nclass = NotSpam", fillcolor="#78bced"] ;
19 -> 25 ;
26 [label="isInReplyTo <= 0.5\ngini = 0.265\nsamples = 153\nvalue = [24, 129]\nclass = NotSpam", fillcolor="#5eafea"] ;
25 -> 26 ;
27 [label="gini = 0.241\nsamples = 150\nvalue = [21, 129]\nclass = NotSpam", fillcolor="#59ade9"] ;
26 -> 27 ;
28 [label="gini = 0.0\nsamples = 3\nvalue = [3, 0]\nclass = Spam", fillcolor="#e58139"] ;
26 -> 28 ;
29 [label="gini = 0.0\nsamples = 17\nvalue = [17, 0]\nclass = Spam", fillcolor="#e58139"] ;
25 -> 29 ;
30 [label="isInReplyTo <= 0.5\ngini = 0.489\nsamples = 1162\nvalue = [666, 496]\nclass = Spam", fillcolor="#f8dfcc"] ;
2 -> 30 ;
31 [label="isYelling <= 0.5\ngini = 0.496\nsamples = 914\nvalue = [418, 496]\nclass = NotSpam", fillcolor="#e0f0fb"] ;
30 -> 31 ;
32 [label="bodyCharCt <= 18359.0\ngini = 0.5\nsamples = 849\nvalue = [416, 433]\nclass = NotSpam", fillcolor="#f7fbfe"] ;
31 -> 32 ;
33 [label="numRec <= 6.5\ngini = 0.48\nsamples = 682\nvalue = [273, 409]\nclass = NotSpam", fillcolor="#bddef6"] ;
32 -> 33 ;
34 [label="gini = 0.488\nsamples = 645\nvalue = [273, 372]\nclass = NotSpam", fillcolor="#cae5f8"] ;
33 -> 34 ;
35 [label="gini = 0.0\nsamples = 37\nvalue = [0, 37]\nclass = NotSpam", fillcolor="#399de5"] ;
33 -> 35 ;
36 [label="perHTML <= 44.597\ngini = 0.246\nsamples = 167\nvalue = [143, 24]\nclass = Spam", fillcolor="#e9965a"] ;
32 -> 36 ;
37 [label="gini = 0.467\nsamples = 62\nvalue = [39, 23]\nclass = Spam", fillcolor="#f4cbae"] ;
36 -> 37 ;
38 [label="gini = 0.019\nsamples = 105\nvalue = [104, 1]\nclass = Spam", fillcolor="#e5823b"] ;
36 -> 38 ;
39 [label="numEnd <= 0.5\ngini = 0.06\nsamples = 65\nvalue = [2, 63]\nclass = NotSpam", fillcolor="#3fa0e6"] ;
31 -> 39 ;
40 [label="perCaps <= 10.05\ngini = 0.097\nsamples = 39\nvalue = [2, 37]\nclass = NotSpam", fillcolor="#44a2e6"] ;
39 -> 40 ;
41 [label="gini = 0.0\nsamples = 23\nvalue = [0, 23]\nclass = NotSpam", fillcolor="#399de5"] ;
40 -> 41 ;
42 [label="gini = 0.219\nsamples = 16\nvalue = [2, 14]\nclass = NotSpam", fillcolor="#55abe9"] ;
40 -> 42 ;
43 [label="gini = 0.0\nsamples = 26\nvalue = [0, 26]\nclass = NotSpam", fillcolor="#399de5"] ;
39 -> 43 ;
44 [label="gini = 0.0\nsamples = 248\nvalue = [248, 0]\nclass = Spam", fillcolor="#e58139"] ;
30 -> 44 ;
45 [label="numDlr <= 2.5\ngini = 0.009\nsamples = 213\nvalue = [1, 212]\nclass = NotSpam", fillcolor="#3a9de5"] ;
1 -> 45 ;
46 [label="gini = 0.0\nsamples = 161\nvalue = [0, 161]\nclass = NotSpam", fillcolor="#399de5"] ;
45 -> 46 ;
47 [label="numEnd <= 0.5\ngini = 0.038\nsamples = 52\nvalue = [1, 51]\nclass = NotSpam", fillcolor="#3d9fe6"] ;
45 -> 47 ;
48 [label="perCaps <= 2.717\ngini = 0.083\nsamples = 23\nvalue = [1, 22]\nclass = NotSpam", fillcolor="#42a1e6"] ;
47 -> 48 ;
49 [label="gini = 0.444\nsamples = 3\nvalue = [1, 2]\nclass = NotSpam", fillcolor="#9ccef2"] ;
48 -> 49 ;
50 [label="gini = 0.0\nsamples = 20\nvalue = [0, 20]\nclass = NotSpam", fillcolor="#399de5"] ;
48 -> 50 ;
51 [label="gini = 0.0\nsamples = 29\nvalue = [0, 29]\nclass = NotSpam", fillcolor="#399de5"] ;
47 -> 51 ;
52 [label="perCaps <= 9.509\ngini = 0.396\nsamples = 526\nvalue = [143, 383]\nclass = NotSpam", fillcolor="#83c2ef"] ;
0 -> 52 [labeldistance=2.5, labelangle=-45, headlabel="False"] ;
53 [label="isWrote <= 0.5\ngini = 0.491\nsamples = 287\nvalue = [124, 163]\nclass = NotSpam", fillcolor="#d0e8f9"] ;
52 -> 53 ;
54 [label="isInReplyTo <= 0.5\ngini = 0.445\nsamples = 245\nvalue = [82, 163]\nclass = NotSpam", fillcolor="#9dcef2"] ;
53 -> 54 ;
55 [label="isRe <= 0.5\ngini = 0.399\nsamples = 225\nvalue = [62, 163]\nclass = NotSpam", fillcolor="#84c2ef"] ;
54 -> 55 ;
56 [label="bodyCharCt <= 340.5\ngini = 0.344\nsamples = 208\nvalue = [46, 162]\nclass = NotSpam", fillcolor="#71b9ec"] ;
55 -> 56 ;
57 [label="hour <= 11.5\ngini = 0.083\nsamples = 23\nvalue = [22, 1]\nclass = Spam", fillcolor="#e68742"] ;
56 -> 57 ;
58 [label="gini = 0.105\nsamples = 18\nvalue = [17, 1]\nclass = Spam", fillcolor="#e78845"] ;
57 -> 58 ;
59 [label="gini = 0.0\nsamples = 5\nvalue = [5, 0]\nclass = Spam", fillcolor="#e58139"] ;
57 -> 59 ;
60 [label="numAtt <= 1.5\ngini = 0.226\nsamples = 185\nvalue = [24, 161]\nclass = NotSpam", fillcolor="#57ace9"] ;
56 -> 60 ;
61 [label="gini = 0.212\nsamples = 183\nvalue = [22, 161]\nclass = NotSpam", fillcolor="#54aae9"] ;
60 -> 61 ;
62 [label="gini = 0.0\nsamples = 2\nvalue = [2, 0]\nclass = Spam", fillcolor="#e58139"] ;
60 -> 62 ;
63 [label="perCaps <= 6.775\ngini = 0.111\nsamples = 17\nvalue = [16, 1]\nclass = Spam", fillcolor="#e78945"] ;
55 -> 63 ;
64 [label="gini = 0.0\nsamples = 15\nvalue = [15, 0]\nclass = Spam", fillcolor="#e58139"] ;
63 -> 64 ;
65 [label="gini = 0.5\nsamples = 2\nvalue = [1, 1]\nclass = Spam", fillcolor="#ffffff"] ;
63 -> 65 ;
66 [label="gini = 0.0\nsamples = 20\nvalue = [20, 0]\nclass = Spam", fillcolor="#e58139"] ;
54 -> 66 ;
67 [label="gini = 0.0\nsamples = 42\nvalue = [42, 0]\nclass = Spam", fillcolor="#e58139"] ;
53 -> 67 ;
68 [label="bodyCharCt <= 231.0\ngini = 0.146\nsamples = 239\nvalue = [19, 220]\nclass = NotSpam", fillcolor="#4aa5e7"] ;
52 -> 68 ;
69 [label="hour <= 11.5\ngini = 0.165\nsamples = 11\nvalue = [10, 1]\nclass = Spam", fillcolor="#e88e4d"] ;
68 -> 69 ;
70 [label="gini = 0.0\nsamples = 8\nvalue = [8, 0]\nclass = Spam", fillcolor="#e58139"] ;
69 -> 70 ;
71 [label="gini = 0.444\nsamples = 3\nvalue = [2, 1]\nclass = Spam", fillcolor="#f2c09c"] ;
69 -> 71 ;
72 [label="isInReplyTo <= 0.5\ngini = 0.076\nsamples = 228\nvalue = [9, 219]\nclass = NotSpam", fillcolor="#41a1e6"] ;
68 -> 72 ;
73 [label="numLines <= 555.5\ngini = 0.06\nsamples = 226\nvalue = [7, 219]\nclass = NotSpam", fillcolor="#3fa0e6"] ;
72 -> 73 ;
74 [label="perHTML <= 83.867\ngini = 0.036\nsamples = 221\nvalue = [4, 217]\nclass = NotSpam", fillcolor="#3d9fe5"] ;
73 -> 74 ;
75 [label="avgWordLen <= 3.493\ngini = 0.018\nsamples = 216\nvalue = [2, 214]\nclass = NotSpam", fillcolor="#3b9ee5"] ;
74 -> 75 ;
76 [label="gini = 0.32\nsamples = 5\nvalue = [1, 4]\nclass = NotSpam", fillcolor="#6ab6ec"] ;
75 -> 76 ;
77 [label="gini = 0.009\nsamples = 211\nvalue = [1, 210]\nclass = NotSpam", fillcolor="#3a9de5"] ;
75 -> 77 ;
78 [label="gini = 0.48\nsamples = 5\nvalue = [2, 3]\nclass = NotSpam", fillcolor="#bddef6"] ;
74 -> 78 ;
79 [label="hour <= 7.5\ngini = 0.48\nsamples = 5\nvalue = [3, 2]\nclass = Spam", fillcolor="#f6d5bd"] ;
73 -> 79 ;
80 [label="gini = 0.0\nsamples = 2\nvalue = [0, 2]\nclass = NotSpam", fillcolor="#399de5"] ;
79 -> 80 ;
81 [label="gini = 0.0\nsamples = 3\nvalue = [3, 0]\nclass = Spam", fillcolor="#e58139"] ;
79 -> 81 ;
82 [label="gini = 0.0\nsamples = 2\nvalue = [2, 0]\nclass = Spam", fillcolor="#e58139"] ;
72 -> 82 ;
}